float far_weight[] = 
{
-0.148323, -0.187693, 0.0371789, 
-0.440392, 0.525939, -0.496475, -0.0987267, 
0.0180417, -0.399678, -0.184285, 0.0260925, 
-0.0388782, 0.235558, 0.239298, 0.120493, 
-0.0702468, -0.163901, -0.00355955, -0.140725, 
-0.118332, 0.167675, 0.212709, 0.15636, 
-0.688751, -0.202367, 0.0269063, -0.180793, 
-0.0558976, -0.120667, 0.1481, -0.0430866, 
0.219098, 0.21034, 0.168918, -0.0797922, 
-0.0264585, -0.153692, 0.119801, -0.108702, 
0.199797, 0.311113, 0.265708, -0.0664128, 
-0.220896, -0.0521309, -0.218853, -0.201291, 
-0.0292287, 0.0524148, -0.0398608, 0.745134, 
0.279047, 0.149031, -0.174918, 0.0144609, 
-0.0174825, 0.207009, 0.026265, 0.310725, 
0.46458, 0.333455, -0.0616432, -0.0488063, 
0.266411, 0.38195, 0.144033, 0.148359, 
0.0431623, 0.14338, 0.246497, 0.0706141, 
0.438577, -0.332905, -0.134629, -0.0175714, 
0.0695287, -0.00322245, 0.519698, 0.157703, 
0.0158091, 0.0774059, -0.377643, -0.300426, 
-0.217729, -0.681876, 0.0761168, 0.0876123, 
-0.0536681, -0.537814, -0.120046, 0.0863266, 
0.128575, 0.0611787, 0.0663173, 0.0109884, 
0.297537, 0.115526, 0.0374528, 0.305686, 
-0.207492, -0.202515, -0.0694081, -0.0706681, 
-0.116538, 0.16541, 0.151996, -0.0758631, 
-0.185456, -0.123168, -0.116935, 0.106927, 
0.20817, 0.096527, -0.618202, -0.205509, 
0.00268303, -0.149616, -0.0683202, -0.0886164, 
0.0933159, 0.0486679, 0.174976, 0.122152, 
0.123178, -0.091554, 0.000364096, -0.103407, 
-0.1045, -0.390649, -0.0211803, 0.640174, 
0.170121, 0.0662507, 0.13408, -0.182905, 
-0.0153901, -0.150548, 0.0270795, 0.0735414, 
0.162043, 0.46395, 0.0949933, -0.176362, 
-0.0172063, -0.0844438, 0.163741, 0.350422, 
0.584836, 0.155127, -0.166067, 0.280449, 
-0.33775, -0.137224, 0.0621453, 0.320577, 
0.133971, 0.700948, 0.306698, 0.329152, 
0.0154047, -0.0520307, 0.111539, 0.099276, 
0.0973924, -0.371504, -0.0251154, 0.056305, 
-0.0456477, -0.14346, -0.116512, 0.0168518, 
-0.0094417, -0.0526582, -0.335395, -0.179383, 
-0.310198, -0.133228, 0.197187, -0.0918158, 
0.138334, 0.0467399, 0.139438, 0.0433636, 
-0.0377091, 0.0487216, 0.350888, 0.0833293, 
0.0652555, 0.222176, -0.183589, -0.164736, 
-0.0643283, -0.0922955, 0.208991, 0.150569, 
0.0982378, -0.0677398, -0.204849, -0.0322592, 
0.0347554, -0.00776313, 0.127304, 0.0798978, 
0.100403, -0.0755243, -0.1237, -0.0667035, 
-0.297605, -0.190159, -0.00446227, 0.0352633, 
0.421197, 0.231014, 0.146397, -0.156989, 
-0.302859, -0.0323709, -0.045756, -0.251511, 
0.00538189, 0.507283, 0.209122, 0.0768931, 
0.131876, -0.162959, 0.0517631, -0.0496012, 
0.0641345, 0.096256, 0.120962, 0.411749, 
0.0665784, -0.142766, 0.0162511, -0.191488, 
-0.274521, -0.108095, -0.0462152, -0.192489, 
0.0499806, 0.0429528, -0.167081, -0.188347, 
0.0747816, 0.0759556, -0.0327071, -0.0293475, 
-0.0175452, 0.00911343, -0.121461, -0.0187942, 
0.0176523, 0.154039, -0.252331, 0.163567, 
0.341104, 0.0622036, 0.124053, 0.0406411, 
0.159795, 0.250503, -0.077853, -0.0708595, 
0.0201011, 0.199672, 0.252693, 0.0962953, 
0.231936, -0.123041, 0.176462, -0.117, 
0.116281, -0.112113, -0.447448, -0.150343, 
0.0133122, -0.267047, -0.0832242, 0.120728, 
0.343109, -0.102447, -0.0742122, 0.132106, 
-0.518703, -0.327659, -0.0109711, 0.05254, 
-0.0395557, -0.0135779, 0.0735961, 0.0859156, 
0.0827362, 0.0651784, 0.0888044, -0.0421319, 
-0.105145, -0.0297225, -0.261727, -0.168549, 
0.044823, 0.131768, 0.672442, 0.273662, 
0.144997, -0.15172, -0.280915, -0.0258679, 
-0.0630079, -0.0443483, -0.0523407, -0.0358498, 
0.069593, -0.045155, -0.0107756, 0.0137051, 
-0.182642, -0.141823, -0.0762243, -0.0859006, 
0.325865, -0.0128703, -0.120588, -0.0543253, 
-0.22905, -0.152144, -0.227091, -0.108884, 
0.059986, 0.271407, 0.142841, 0.0263207, 
-0.169105, -0.185213, 0.090502, 0.0967186, 
0.0337641, 0.120223, -0.0340057, -0.0380083, 
-0.0947387, -0.0147319, 0.0340746, -0.11482, 
-0.179874, 0.0647468, -0.0371561, 0.415085, 
-0.0942736, -0.208761, -0.00884842, -0.0565238, 
-0.062626, 0.089913, 0.0167849, 0.00280766, 
-0.0311292, -0.13888, -0.0197294, 0.109244, 
-0.0915156, -0.0283111, -0.0677714, -0.0756153, 
0.383097, 0.144039, 0.115825, -0.0853672, 
0.324012, -0.0507226, 0.164595, -0.451577, 
-0.0445293, -0.262665, 0.100693, 0.254133, 
0.098498, -0.278179, 0.0505472, 0.00909594, 
0.0859726, 0.278563, 0.210867, -0.0761188, 
0.0354482, 0.0515301, 0.169732, 0.134281, 
0.0334691, 0.0449113, 0.0474303, 0.124559, 
0.276404, 0.0148679, -0.225528, 0.131043, 
0.291226, -0.0416442, -0.0813969, -0.0732804, 
-0.212322, -0.133443, 0.0447658, 0.0353958, 
0.000190745, 0.0352162, -0.187258, -0.132245, 
-0.0965988, -0.120101, 0.2507, 0.049344, 
-0.109841, -0.0258609, -0.231904, -0.146817, 
-0.0637002, -0.0483108, 0.175821, 0.0445128, 
0.0531238, -0.0343913, -0.0747006, 0.0575543, 
-0.12032, -0.121195, -0.190796, 0.0146149, 
0.105398, -0.159337, -0.0948727, -0.186263, 
-0.0864486, -0.0828356, -0.135863, 0.047462, 
0.0909287, 0.397537, -0.063588, -0.204324, 
-0.00576297, -0.0471277, -0.0695468, 0.039646, 
0.0336753, -0.00274806, -0.0608833, -0.180904, 
0.00117011, 0.123241, -0.103218, -0.107683, 
-0.0964148, -0.0508256, -0.215148, -0.070329, 
-0.141018, 0.189447, -0.107161, -0.0754973, 
0.115935, -0.10687, -0.151496, -0.0632871, 
0.0392687, -0.0142386, -0.0514206, -0.0254397, 
-0.00919482, 0.350406, -0.198032, 0.188871, 
0.147861, 0.0311001, -0.0632898, -0.0518578, 
0.0144352, -0.176684, 0.121149, -0.325764, 
0.266093, -0.0234653, -0.000663616, 0.0424274, 
0.149225, -0.173209, 0.145116, -0.0827228, 
-0.154701, 0.068745, -0.501766, 0.111484, 
0.0749438, 0.0369942, -0.0304236, 0.0385303, 
0.356017, 0.0899199, 0.240084, -0.190674, 
-0.264689, 0.0113843, 0.0531821, -0.0575922, 
0.263471, -0.115485, -0.066123, -0.0789218, 
0.116941, 0.0100524, 0.0574145, -0.0328002, 
-0.0462549, 0.0945024, -0.101802, -0.115663, 
-0.223012, -0.0950564, 0.172018, -0.0525504, 
-0.0976071, -0.165016, -0.087197, -0.0384437, 
-0.0514873, 0.172142, -0.00499503, -0.138868, 
-0.0389466, 0.149279, 0.0537883, 0.0557736, 
-0.00773746, -0.102843, 0.041592, 0.112365, 
-0.0649384, -0.246929, -0.0442906, -0.0469161, 
-0.148427, -0.103545, -0.0840508, -0.0413416, 
-0.205888, 0.481158, -0.30206, 0.153852, 
-0.12294, -0.0813647, 0.129475, -0.109669, 
-0.174779, 0.0384318, -0.0780034, -0.0608559, 
0.00149723, -0.00265946, -0.0280955, -0.103712, 
-0.0732505, -0.0903841, -0.279586, -0.152246, 
0.0208686, -0.00173682, -0.104391, 0.0593148, 
-0.123413, -0.220715, 0.0314333, 0.00986082, 
-0.0186611, -0.0907442, 0.154853, -0.0233714, 
-0.197079, -0.168622, 0.0369203, -0.275573, 
0.607519, 0.0245657, 0.12474, -0.360111, 
-0.124983, -0.100803, -0.0685256, -0.20638, 
0.0597176, 0.205616, 0.0390273, -0.19352, 
0.118587, -0.049567, -0.248621, -0.371635, 
0.135554, -0.296955, 0.021486, -0.341783, 
0.434041, -0.0725232, -0.171191, -0.629852, 
0.243524, -0.314916, -0.251744, 0.0197768, 
-0.160216, 0.0659506, 0.150318, -0.294278, 
0.0282886, -0.0706525, -0.0618863, 0.177857, 
-0.0860969, -0.0677498, 0.0530606, 0.130375, 
0.0277841, -0.0286768, 0.0158561, -0.108144, 
0.0402383, -0.0208838, 0.573241, -0.165767, 
-0.0657832, -0.0456022, -0.139478, -0.118679, 
0.0809995, 0.0214798, 0.161336, 0.14864, 
-0.186364, -0.154784, -0.0166651, -0.0494402, 
-0.191102, -0.0108942, 0.0432053, 0.122709, 
-0.0730494, -0.127957, 0.174946, 0.00541109, 
-0.00663135, -0.11491, -0.075751, -0.0644931, 
-0.191259, 0.577915, -0.00421142, 0.0252687, 
-0.133906, 0.0469902, -0.115751, -0.231018, 
0.0434595, 0.125821, 0.019283, 0.0475404, 
0.127277, -0.0240771, -0.228212, -0.0304929, 
0.0823401, -0.0330159, -0.134417, 0.221394, 
0.0148763, 0.104594, 0.314331, 0.34038, 
0.243705, 0.192187, 0.0110351, -0.084725, 
-0.198205, 0.00728939, 0.0299766, -0.232461, 
0.0499718, -0.0692588, -0.317631, 0.0274003, 
0.275119, 0.044015, 0.102939, 0.0954655, 
-0.0581767, -0.350066, -0.146083, 0.0562068, 
0.0475936, 0.262804, 0.160253, 0.00817767, 
-0.00304541, 0.0102041, -0.159991, 0.138573, 
0.292697, 0.00504771, -0.234917, -0.180805, 
0.0140341, 0.159115, -0.302423, 0.257034, 
-0.0695852, -0.216398, -0.0395866, -0.146407, 
-0.0519299, 0.0154732, -0.119169, 0.275815, 
0.202215, -0.143221, 0.0914193, 0.045425, 
0.229492, 0.0910663, -0.159358, -0.115793, 
-0.0225086, -0.111265, -0.227935, -0.0347386, 
0.027035, 0.166981, -0.090079, -0.0488411, 
0.191731, 0.0118963, -0.031904, -0.08625, 
-0.181681, -0.0253139, -0.0752495, -0.057153, 
0.0326099, -0.0396279, 0.162195, -0.250393, 
0.32244, -0.32505, 0.164799, -0.00917125, 
0.180745, -0.304223, 0.0264609, 0.0791075, 
-0.05276, };


float far_bias = -14.517496835;



float mid_weight[] = 
{
-0.421617, -0.0854956, -0.0448827, 
0.0441614, 0.311953, -0.0343018, -0.348097, 
-0.106378, -0.25929, -0.0779865, -0.0620763, 
0.114582, 0.126667, -0.0103979, -0.00615642, 
-0.0892095, -0.153111, -0.112895, -0.0851125, 
0.146824, 0.0196731, -0.0116709, 0.44299, 
-0.148174, -0.213556, -0.16717, -0.179995, 
0.0124553, 0.0209484, 0.010037, 0.239577, 
0.127153, 0.272213, 0.1552, 0.0282944, 
0.142306, -0.123079, -0.0102623, 0.131279, 
0.0560553, 0.00380833, 0.0294663, -0.0219585, 
-0.189789, -0.140417, 0.178629, 0.0989213, 
0.101875, -0.0174413, 0.0799301, 0.119238, 
0.00177954, -0.0122063, 0.084223, 0.173012, 
0.168949, 0.198519, 0.23381, 0.081431, 
0.0869905, 0.123474, 0.0208483, 0.100012, 
0.172584, 0.0190774, 0.0706979, 0.169977, 
0.0692431, 0.149725, 0.111046, 0.122623, 
0.159029, -0.188877, 0.0632701, 0.0146027, 
-0.124882, 0.106229, 0.108013, -0.0154534, 
-0.0725776, 0.00182211, -0.140925, -0.15911, 
0.0376513, 0.0607682, 0.285455, -0.131944, 
0.132999, -0.312224, 0.0698803, 0.131469, 
-0.0679465, -0.0086661, 0.244792, 0.226105, 
0.116128, 0.0563248, -0.0415198, 0.000671982, 
-0.0870086, -0.235531, -0.0275885, -0.172739, 
0.184162, 0.0498961, 0.113643, 0.232648, 
-0.101244, -0.106572, 0.0844182, 0.077237, 
0.0698697, -0.0601847, -0.198363, -0.223787, 
-0.174952, -0.137185, -0.150553, -0.0755438, 
-0.0208948, 0.0628948, 0.106521, 0.185795, 
0.0103769, -0.00596178, 0.155194, -0.146821, 
0.0175014, 0.317998, 0.247151, 0.43347, 
0.0890335, -0.220715, -0.20849, -0.205537, 
-0.0336164, -0.0243256, 0.122969, 0.0604015, 
-0.0163846, 0.136094, 0.129648, -0.0233399, 
-0.0505178, 0.103546, 0.0740465, 0.163543, 
-0.327852, -0.0995043, -0.0911213, -0.0910666, 
-0.063837, -0.154151, -0.228609, 0.0108241, 
0.101677, -0.172009, -0.0421752, -0.00847389, 
-0.101476, 0.1934, 0.0588515, 0.0815905, 
0.0702123, 0.115357, 0.184627, 0.0665799, 
-0.093663, -0.331671, 0.0181625, -0.127046, 
0.0483404, -0.0224496, -0.0655662, -0.167559, 
0.0242624, -0.0509406, -0.0556416, -0.0123998, 
-0.00264487, -0.0576718, -0.187782, -0.140036, 
0.00672583, 0.072134, 0.0991916, 0.0634235, 
-0.0377352, -0.00895393, -0.0896515, -0.258169, 
-0.0171612, -0.0600586, 0.0219123, -0.052293, 
0.0680188, 0.103178, -0.180073, 0.126163, 
0.0288523, 0.04361, 0.203165, 0.14508, 
0.0109512, 0.0495162, 0.0614416, 0.10953, 
-0.224428, -0.0179087, -0.00288238, 0.0707243, 
0.26306, -0.0305733, 0.052205, 0.0484943, 
-0.0450621, -0.145423, -0.039107, 0.281281, 
0.194434, 0.12559, 0.0228547, -0.169602, 
-0.172973, -0.240871, -0.0677004, -0.0654991, 
-0.0174753, -0.0056627, -0.135342, 0.0184329, 
0.209872, 0.017013, -0.0288538, -0.10185, 
-0.140217, 0.171914, 0.148398, 0.212975, 
0.15806, 0.0302251, 0.0272796, -0.121565, 
0.0522224, 0.295789, 0.229128, 0.148588, 
-0.0639091, 0.0109015, 0.0427069, 0.143727, 
-0.0743415, -0.0376634, -0.107549, -0.306026, 
-0.124507, -0.275012, -0.232064, -0.0091966, 
-0.116251, 0.0305717, -0.106607, -0.0874998, 
0.0532065, -0.0299543, -0.239339, 0.0580044, 
-0.238151, -0.0576681, -0.016492, 0.0762836, 
0.0327684, 0.00881986, 0.0212007, 0.046727, 
0.111497, 0.00455834, 0.054332, 0.0313783, 
-0.0529036, -0.0425812, -0.00691594, -0.0971375, 
-0.147869, 0.128303, 0.234138, 0.182695, 
0.145578, -0.0818489, -0.0844016, 0.0270589, 
0.15355, -0.00589541, -0.0324918, 0.0272672, 
-0.00477739, -0.0349867, -0.307516, -0.16694, 
-0.0391461, 0.104229, 0.00646181, 0.25667, 
0.246967, 0.0294541, -0.172542, -0.0770534, 
0.0749768, 0.186267, 0.152854, 0.122688, 
0.167773, 0.29492, 0.0729561, -0.277421, 
-0.122825, -0.04242, 0.0834449, -0.021385, 
-0.00401073, 0.176615, 0.216343, 0.2149, 
0.0109696, -0.0901587, -0.137618, 0.104042, 
0.1986, 0.17595, 0.00841224, -0.0176927, 
-0.0159129, -0.109592, 0.0793225, 0.160792, 
0.130652, 0.138229, 0.017561, -0.0366602, 
-0.018593, 0.070649, -0.034796, 0.0951804, 
-0.2834, 0.296454, 0.0568408, -0.10227, 
0.10394, 0.20964, -0.13661, 0.114637, 
-0.155109, 0.0428633, 0.0821091, -0.0266627, 
0.132455, 0.0621314, 0.178874, 0.0414351, 
-0.043551, 0.0311952, -0.158309, -0.0711891, 
0.0103718, 0.0617429, 0.139947, 0.243636, 
0.00193103, 0.0953833, 0.0439856, 0.112644, 
0.0909554, -0.0637308, -0.0696775, -0.0299305, 
-0.0991104, 0.0440761, 0.302279, 0.193143, 
-0.0715948, -0.0959303, -0.0782396, -0.125644, 
-0.0547417, 0.0199298, -0.0852835, -0.0640868, 
0.177133, -0.196739, -0.175332, -0.127005, 
-0.0133846, 0.0529675, -0.0154359, -0.181224, 
0.193327, -0.0844727, 0.0473549, 0.0942687, 
0.0100274, -0.0369477, 0.0810864, 0.105566, 
0.00212509, -0.232746, -0.112756, -0.0191653, 
0.00130195, -0.132825, 0.1067, 0.165255, 
0.199295, 0.145334, 0.0249832, -0.0533147, 
0.0605429, 0.249476, 0.0173186, -0.073051, 
0.0508835, -0.0232026, 0.00859388, 0.0190876, 
-0.251402, -0.109362, 0.140725, -0.142667, 
-0.0953966, 0.12295, 0.133338, -0.27913, 
-0.147507, 0.0496384, -0.204628, 0.292993, 
0.127106, 0.189546, -0.172539, 0.0821557, 
-0.148881, 0.0338663, 0.0276041, 0.0391335, 
0.0557444, -0.00913742, -0.0169253, -0.0513496, 
0.0615102, -0.0010223, 0.0038341, 0.0972511, 
-0.0444338, -0.121278, 0.0241929, 0.0403208, 
-0.0469203, 0.081386, -0.125728, 0.0515983, 
-0.0157143, -0.030254, 0.119125, 0.0211269, 
0.147235, 0.046985, 0.132576, -0.017876, 
0.0803869, 0.23458, 0.0492248, 0.139786, 
-0.0640755, 0.00543538, 0.108315, 0.130188, 
0.0333755, -0.0129831, 0.215085, 0.0849152, 
-0.0440602, 0.230398, -0.137531, -0.0497431, 
-0.204636, -0.0759847, 0.200439, -0.017996, 
0.0995467, -0.029245, -0.0219975, 0.0443865, 
0.0959934, -0.0232757, -0.0454085, 0.117862, 
0.0243719, -0.0436125, -0.0500186, 0.0856896, 
0.0870697, 0.160015, -0.0452248, 0.0571856, 
-0.0355607, -0.175447, 0.0657735, 0.0670406, 
-0.0236969, -0.0853182, 0.106407, 0.0499448, 
0.0525186, -0.0892151, -0.298721, -0.0693304, 
0.103278, -0.132631, 0.0822685, -0.119906, 
0.0232135, -0.329976, -0.214071, 0.0656617, 
0.0603573, 0.098511, 0.314402, 0.28934, 
0.179409, -0.0338869, -0.0777493, -0.0505079, 
-0.0954023, -0.194727, 0.0396648, 0.163192, 
0.291602, 0.127227, 0.240966, -0.133854, 
-0.208655, -0.0962632, -0.0859569, -0.0661801, 
-0.0672367, -0.364943, -0.176842, 0.0177074, 
-0.16697, -0.0621614, 0.00916986, -0.0269668, 
0.0274094, -0.188382, -0.141561, -0.151738, 
-0.0835285, -0.108866, -0.0317506, -0.0296167, 
-0.341461, 0.0116253, 0.12465, 0.0655017, 
-0.0773482, -0.0041257, -0.0901953, 0.116544, 
0.0572077, 0.0415994, 0.154749, 0.158138, 
0.0918251, 0.130448, 0.110417, -0.124376, 
-0.00930506, -0.102657, -0.0394329, -0.0337167, 
-0.160882, -0.116465, -0.17114, 0.0961805, 
0.064467, -0.0159366, -0.0591012, 0.0159254, 
-0.0674558, -0.0301837, -0.20021, -0.0842016, 
-0.150082, 0.0147881, 0.176147, -0.2259, 
0.140098, 0.147923, 0.194187, 0.31062, 
0.132429, 0.195671, -0.0802486, 0.0523053, 
0.108868, 0.0621658, -0.00925808, 0.207006, 
0.120341, 0.0133968, 0.223073, 0.150395, 
0.0142372, 0.0491846, 0.0360854, -0.0357985, 
0.00475572, -0.154134, -0.0246314, -0.00922253, 
-0.00554017, -0.00941322, -0.196421, -0.244072, 
-0.0719631, -0.126847, -0.160522, -0.103502, 
0.0990559, -0.105242, -0.162218, -0.0126801, 
-0.027855, 0.112128, 0.239781, 0.321348, 
0.165686, 0.119979, -0.0308375, -0.143894, 
-0.105857, 0.0125475, -0.0699331, -0.0729373, 
0.108194, 0.158584, 0.178246, -0.174642, 
0.148036, -0.00233329, -0.224546, 0.0413138, 
-0.00547659, -0.246379, 0.120646, -0.0294072, 
-0.0801256, 0.00792493, -0.152066, -0.0433867, 
0.0410756, 0.0434078, -0.0760529, 0.0446604, 
0.0338618, -0.0605169, -0.0871108, 0.197985, 
0.0767697, -0.165188, 0.048979, 0.233967, 
-0.567398, 0.0314228, -0.0456499, 0.289412, 
-0.0534948, 0.0580854, 0.0429074, -0.0500571, 
-0.0380464, 0.0293885, -0.140329, -0.106186, 
-0.134872, -0.16879, -0.0422054, -0.0353682, 
-0.0863737, -0.118191, 0.00070437, 0.00436468, 
-0.0152886, -0.0833989, 0.0492414, -0.0121858, 
0.00598063, -0.0992219, -0.147038, -0.041523, 
0.0287136, 0.000862598, -0.0442711, 0.115227, 
0.0600063, -0.0101444, -0.191322, -0.132512, 
0.0334892, -0.195598, -0.0872838, 0.20572, 
0.50087, -0.151816, -0.0245026, 0.0104396, 
-0.118343, -0.0877302, 0.0289262, -0.11161, 
0.270991, 0.0419681, 0.0575103, 0.0856578, 
0.024882, 0.0282166, 0.0359291, 0.0277169, 
0.0279253, -0.0732009, 0.031161, 0.0341314, 
0.045751, 0.0320579, 0.0878043, -0.0297487, 
0.0658862, -0.167716, 0.0724908, -0.16323, 
-0.167013, -0.0787723, 0.0242824, -0.102405, 
0.00180419, 0.155855, 0.03497, 0.0538722, 
0.116129, -0.376825, 0.244745, -0.241623, 
0.19776, 0.490786, 0.200066, 0.201158, 
0.113782, 0.280244, 0.691331, 0.272255, 
0.691962, };


float mid_bias = -12.3276555115;



float near_weight[] = 
{
0.0239343, -0.0275593, 0.015406, 
-0.0137939, 0.0657613, -0.00710518, -0.0349341, 
-0.0503667, -0.0248093, 0.010499, 0.0122009, 
0.0129862, 0.016714, 0.0313841, -0.00483121, 
-0.0478755, 0.00949544, 0.0187077, 0.0060773, 
0.0244174, 0.0154418, -0.0140893, 0.0613595, 
-0.00296415, -0.0119112, -0.0103167, -0.0171377, 
-0.00226985, 0.0044157, 0.0165437, 0.0361674, 
0.0502472, 0.0294457, 0.0283799, 0.000672119, 
-0.00512341, -0.0268884, 0.0131803, 0.00641913, 
0.0172034, 0.0340525, -0.00822038, -0.0524667, 
0.00419042, -0.036876, -0.0104297, 0.0479578, 
-0.0220515, 0.0309305, -0.0145065, 0.00106361, 
-0.0188871, 0.0276832, 0.06395, 0.00543289, 
0.00721035, 0.00986727, 0.0385629, 0.0517085, 
0.0226055, 0.0276033, 0.000990271, 0.000840615, 
0.0186526, 0.0570068, 0.00592091, 0.00958442, 
0.000548248, 0.0324415, 0.0145235, 0.0339576, 
0.0319126, -0.0459955, 0.035051, -0.0319164, 
0.0122489, -0.0239474, -0.00240407, -0.020068, 
0.0141581, 0.0464078, 0.000776093, -0.0112923, 
-0.010728, 0.00219938, 0.0839458, -0.0335182, 
-0.0133109, -0.0158202, 0.00824164, -1.63193e-05, 
0.0332667, -0.00674689, 0.00432941, -0.00275494, 
0.0365498, 0.0115115, 0.00941112, 0.0110006, 
-0.0225732, 0.00554101, 0.0108719, 0.0117065, 
0.00441466, -0.0647375, -0.0282848, -0.00579309, 
-0.036925, 0.00194592, 0.019792, 0.0140506, 
-0.0170958, 0.0439074, -0.0154879, -0.0155362, 
-0.00962791, -0.0303188, -0.0046012, 5.68345e-05, 
0.0108608, 0.0332794, 0.040689, 0.0212893, 
0.0243173, -0.00681319, -0.00649934, -0.0434196, 
0.00483516, 0.0526973, 0.0316511, 0.0656366, 
-0.0161743, -0.0125298, -0.0292069, -0.0327333, 
0.0517243, 0.00298205, -0.00836166, 0.00228394, 
-0.0243551, -0.00277487, 0.0127847, 0.0158785, 
0.00392589, 0.0335756, 0.00762735, -0.015766, 
0.0125677, 0.020124, -0.0154788, 0.0325265, 
0.00362607, 0.00121112, 0.0160921, 0.0765751, 
0.00603778, 0.00835709, -0.0140829, 0.0291465, 
-0.0153551, 0.0624707, 0.0436788, 0.0196552, 
-0.00536425, -0.0128372, -0.0160454, -0.036131, 
-0.0276968, 0.00935545, 0.0196322, -0.0252476, 
-0.0660158, -0.0162608, -0.0359462, 0.0478301, 
-0.00789689, -0.0252971, 0.00777867, 0.013193, 
-0.00313428, -0.00659307, 0.0431682, 0.00312376, 
0.0180459, -0.000528593, 0.0360689, 0.0099826, 
0.014461, 0.0133959, -0.0169212, 0.0138995, 
0.0177422, 0.0121728, 0.0513567, -0.0592263, 
-0.0234135, -0.00697951, -0.0346494, -0.0345392, 
0.00514983, 0.00467759, 0.0302938, -0.0117365, 
-0.00893242, -0.000562202, 0.0121564, 0.00312867, 
0.00691503, 0.0142266, -0.00249567, 0.00713154, 
0.0263774, -0.0172547, -0.0070361, -0.00152742, 
0.0198701, -0.0461508, -0.000944209, 0.0382119, 
0.019875, 0.0548921, -0.021027, -0.0150549, 
-0.0317228, -0.0332249, 0.0330056, -0.00218959, 
-0.0117373, 0.00387754, -0.0262199, -0.000527645, 
0.00683073, 0.0113928, -0.00850949, 0.00861955, 
0.0414874, -0.0170012, 0.0147494, 0.0296825, 
-0.00333091, -0.0263602, -0.0139269, -0.00795125, 
0.0198399, 0.00831525, 0.0242529, 0.00669748, 
-0.00742527, -0.0199916, -0.0193848, 0.00594507, 
-0.0148475, 0.0309228, 0.0111144, 0.0036992, 
0.00706765, -0.0143489, 0.0056258, 0.0199695, 
0.0399822, -0.0179803, -0.0623188, 0.0112874, 
-0.012668, 0.0524464, 0.00733409, -0.0153394, 
0.0252881, 0.0363721, 0.0146254, 0.050731, 
0.0255281, 0.0501396, 0.00611749, -0.0206106, 
-0.035756, -0.0262797, 0.0185088, 0.000188017, 
0.0151307, -0.0303955, -0.00151489, -0.00746235, 
0.0213157, 0.0512207, 0.0113118, 0.0180277, 
-0.00591258, -0.0300026, 0.0111356, 0.0056356, 
0.0313578, -0.00880069, -0.00358697, -0.00404702, 
0.0117723, 0.0063883, 0.00811533, 0.0158042, 
-0.00109211, 0.00637277, 0.0589852, -0.0139899, 
-0.00502352, -0.0028753, 0.0181819, -0.00446174, 
-0.0212746, 0.00672126, -0.00394997, -0.000587781, 
0.00795232, -0.00114767, -0.00767848, -0.0111039, 
-0.0154847, -0.0142109, -0.0124931, -0.00438967, 
0.0441377, -0.00678913, 0.0279843, 0.0371271, 
0.008475, 0.00831133, 0.0338271, -0.0211504, 
0.00955829, 0.0222137, -0.00413298, -0.0273897, 
-0.0138908, -0.00864734, 0.0182759, 0.0069712, 
0.0172984, -0.0019394, -0.0134464, -0.0226664, 
-0.020716, 0.00138314, -0.0167419, -0.00762895, 
-0.0226896, -0.0285323, -0.0119583, 0.0472402, 
0.049436, 0.0070842, -0.0182876, -0.00172916, 
0.0166852, -0.0141654, 0.00141176, 0.00701308, 
-0.0165088, -0.0109332, -0.0213988, -0.000934109, 
-0.0259101, 0.0273074, 0.0235659, 0.0435232, 
-0.00502281, -0.0280238, -0.038164, -0.0233439, 
0.0170819, -0.00511117, -0.00477264, -0.0380233, 
0.0118727, 0.00997689, 0.0332518, 0.0591264, 
0.0053386, 0.00918135, -0.0265343, 0.0306127, 
-0.0338932, 0.00949693, -0.0116968, -0.0415675, 
-0.0086901, -0.0476573, 0.0197384, -0.0172915, 
0.00358318, -0.00418056, 0.0253311, 0.00370086, 
0.00429851, -0.0495272, 0.0213816, -0.000130255, 
0.0461111, -0.00359882, -0.0196468, 0.0118803, 
-0.00359798, -0.00223324, 0.00710085, -0.00112186, 
-0.00771732, -0.010381, -0.0128731, -0.0126625, 
-0.00905311, -0.00112958, 0.0498245, -0.00493909, 
0.0334671, 0.0398451, 0.00935299, 0.00179053, 
-0.00919239, 0.0114564, 0.000107574, -0.00480484, 
-0.0314787, -0.00209447, -0.00553085, 0.017464, 
-0.0207306, -0.0254661, -0.00262225, 0.0253314, 
0.0241581, -0.0241586, -0.0205166, -0.00962408, 
-0.0056544, -0.00633474, -0.0192678, -0.0268661, 
-0.00782377, 0.0686183, 0.0482163, 0.00736314, 
-0.0180662, 0.00275223, 0.0214719, -0.00962102, 
0.00266194, 0.0116465, -0.0113936, -0.00942796, 
-0.0228868, -0.00180878, -0.0236989, -0.00261649, 
-0.0348703, 0.0226218, 0.0100509, 0.0327217, 
0.00774523, -0.00640299, -0.00356398, -0.0212164, 
0.0136757, 0.0101135, 0.0276514, 0.0330428, 
-5.39222e-05, -0.00633988, -0.00977843, 0.00347571, 
0.0248327, 0.0366698, -0.0359349, 0.00518249, 
-0.0064109, -0.0426608, -0.000127103, -0.0463892, 
0.017958, -0.00702466, 0.00602271, -0.00465298, 
0.0256505, -0.00153455, 0.00273401, -0.0512155, 
0.0222133, 0.00239705, 0.0544619, 0.030026, 
0.0140277, 0.0441055, 0.0600983, -0.00227296, 
-0.000903546, 0.0154455, 0.0270112, 0.0189253, 
0.018721, -0.00154101, -0.00770432, -0.0307586, 
-0.0178993, 0.0142009, -0.0314059, -0.0246542, 
0.0195812, 0.00846264, -0.00648146, 0.014651, 
0.00248658, -0.00268253, -0.0265538, 0.00368615, 
-0.00262296, 0.0232356, -0.0149695, -0.0210614, 
-0.00169119, 0.0254583, 0.0309911, -0.0188413, 
-0.024242, -0.00675365, -0.000780523, 0.0123614, 
0.00765418, 0.00746073, 0.00256563, 0.0143805, 
0.0160244, -0.012706, -0.0261947, 0.00935335, 
-0.00461834, -0.0226579, -0.0102087, 0.00476291, 
0.0544037, -0.0157325, -0.00894603, 0.0104002, 
0.001167, -0.00184791, -0.029763, 0.0272253, 
0.0217198, 0.0661608, 0.00616802, -0.00381442, 
-0.00338898, -0.0221983, 0.0140583, 0.010701, 
0.0280267, 0.0386016, 0.00137093, -0.00434454, 
-0.0139841, -0.00419796, 0.0236212, -0.0229738, 
-0.00168941, -0.00645859, 0.0205846, 0.0412652, 
0.07601, 0.00475114, -0.0011869, -0.0305452, 
0.0115217, 0.0158331, 0.018876, 0.0423685, 
0.0496144, 0.0330564, 0.0175346, 0.000909867, 
0.0147174, 0.0171585, 0.0117059, 0.0283632, 
0.0302611, -0.0302846, -0.0115473, -0.0201659, 
0.00163019, 0.0161214, 0.00997792, -0.012561, 
-0.0256463, -0.033222, -0.0103324, 0.00910641, 
-0.0459291, -0.0380129, 0.0145737, -0.0203157, 
0.0170935, 0.0426132, 0.0295995, 0.0421007, 
0.0283661, 0.0251003, 0.00598654, 0.0226384, 
0.0234801, -0.0556816, -0.0126452, -0.0274685, 
0.00219479, 0.0480594, -0.0110398, 0.0380865, 
0.0294909, 0.0146423, 0.00580621, 0.00376437, 
-0.000866422, 0.0081714, 0.0114944, -0.0174368, 
-0.0269787, 0.00899087, -0.00689495, -0.023424, 
-0.015605, 0.00133423, 0.013639, -0.010781, 
-0.0119581, 0.00350541, -0.00314115, 0.0289045, 
-0.00169517, 0.00988845, 0.00383141, 0.0218693, 
0.0334112, -0.00576102, 0.0195768, 0.0130316, 
0.0338251, 0.0366741, 0.0111634, 0.0353218, 
0.0247762, 0.0268811, 0.0221829, -0.0081666, 
-0.00694215, -0.0227534, -0.00441044, -0.0103452, 
0.011861, 0.0421709, 0.073156, 0.00314746, 
0.004357, -0.0248452, 0.0150689, 0.0156709, 
0.0182034, 0.0389128, 0.0483003, 0.030168, 
0.0174651, 0.00179162, 0.0175745, -0.011405, 
-0.0172334, -0.0116517, 0.0177904, -0.0152832, 
0.0425237, 0.0134509, 0.00504911, -0.0307477, 
-0.0313528, -0.00562745, 0.0420584, 0.0635477, 
0.0423729, 0.038351, 0.0231504, 0.0207857, 
0.000878121, -0.00181327, 0.009751, 0.0464684, 
0.000969289, 0.00512343, -0.0053236, -0.00430363, 
-0.0159651, 0.00153268, 0.0332852, -0.0320021, 
-0.0215558, -0.0529546, -0.000714922, 0.0264405, 
-0.0243059, 0.0140924, 0.0240644, -0.0853954, 
-0.0369637, 0.0384065, 0.0176491, -0.0211722, 
0.0141593, 0.00211055, 0.0154952, -0.0475603, 
0.0152834, 0.0293551, 0.0258064, 0.0124826, 
-0.0201705, -0.00357301, 0.0330076, -0.0107944, 
0.0274028, 0.0326539, -5.61892e-05, 0.00836064, 
0.00198598, 0.0274174, 0.035132, -0.00724459, 
0.0150942, 0.0188994, 0.0332013, 0.037805, 
0.0139865, 0.0305439, 0.0408526, 0.0233385, 
0.021522, -0.0106948, -0.0100242, 0.0199331, 
0.0329539, 0.0287921, 0.0385607, 0.0210658, 
0.0168655, 0.0392858, 0.0244173, 0.0222891, 
0.0214358, 0.0267427, 0.0151741, 0.0102963, 
-0.101328, 0.0228506, 0.0236662, 0.0362852, 
0.00520687, -0.00776006, -0.0151421, -0.00874958, 
0.0299829, 0.0425709, 0.0483729, 0.0181641, 
0.0123932, -0.0234881, -0.0240974, 0.00285696, 
0.0475017, 0.076693, 0.0568987, 0.0493471, 
0.0300011, 0.0296525, 0.00802372, -0.028284, 
-0.0151174, -0.000878147, -0.00510727, -0.0532789, 
0.0107588, 0.00900677, -0.00312816, -0.0253194, 
-0.0131837, 0.00501141, 0.0289134, 0.0232275, 
0.0334084, 0.00863579, 0.0014415, 0.0151975, 
-0.0089146, -0.0583148, -0.00845925, 0.0399256, 
0.023481, -0.0249521, 0.0213633, 0.00145919, 
0.0285244, -0.0223997, 0.0439126, 0.0207136, 
0.0193462, 0.0356915, 0.00147614, 0.00661699, 
0.043034, 0.00854015, 0.0674618, -0.0432305, 
0.00525343, 0.0233535, -0.0329331, -0.0473544, 
-0.0298978, -0.0309493, 0.00159167, -0.0226335, 
-0.0398548, 0.000819116, 0.00386406, -0.0241952, 
-0.00867676, 0.03392, 0.033906, -0.0329221, 
-0.0218748, 0.028259, 0.0276925, 0.0297299, 
0.0504039, 0.0274085, 0.0275886, 0.0420387, 
0.0324538, 0.0341839, 0.0290912, 0.0332413, 
0.0194462, 0.0280165, -0.0307, 0.0325278, 
0.024846, 0.0433584, 0.0217158, -0.00281852, 
0.0251675, 0.00526045, -0.00360492, 0.0267677, 
0.0424306, 0.0282645, -0.0109028, 0.00211895, 
-0.0292809, 0.0208747, 0.024917, 0.00892652, 
-0.0236475, 0.0159106, 0.012812, -0.00198792, 
0.00811656, -0.0159972, -0.00680523, 0.0128055, 
0.0103491, 0.0544838, 0.0200049, 0.0163767, 
0.0073953, -0.0165453, -0.00301328, 0.0138787, 
0.0387323, 0.0365402, 0.0446562, 0.0190354, 
0.0129166, 0.0238144, -0.00275884, -0.0419098, 
-0.00111037, 0.0219793, 0.00201632, -0.0100751, 
0.0186284, -0.00593873, 0.0184024, 0.00014426, 
-0.0222423, 0.00922029, 0.0136077, 0.015954, 
-0.000189844, 0.0165736, 0.00838114, 0.0285363, 
0.050356, -0.0041931, 0.015073, 0.0526589, 
0.042545, 0.0380104, 0.0177315, 0.00802187, 
0.0263054, -0.002646, -0.00384545, 0.0258303, 
0.0127013, 0.00495238, 0.0342517, 0.0660098, 
0.0444713, -0.00331735, 0.0257573, -0.0535944, 
0.0126558, 0.0184604, 0.021096, -0.00356822, 
0.0198442, 0.00710306, 0.0314684, 0.0436362, 
0.00317833, 0.010897, -0.00149615, 0.0188385, 
-0.00581492, 0.0151184, 0.0176258, 0.0357807, 
0.00655271, -0.0113973, 0.0189656, 0.00713169, 
-0.00105157, 0.0297804, 0.0488685, 0.0365462, 
-0.00705544, 0.0107371, -0.0230845, 0.0143262, 
0.0231919, 0.00789212, 0.0416247, 0.0261975, 
0.0199096, 0.00476918, 0.00800394, -0.010196, 
0.00556088, -0.00559449, 0.0108837, -0.00361152, 
0.0139926, 0.0129313, 0.0257108, 0.00473973, 
0.0485255, 0.0208503, -0.0186821, 0.0286155, 
-0.0297379, -0.0129747, 0.0228329, 0.0356232, 
-0.046363, };


float near_bias = -4.14185490288;



